digraph Tree {
node [shape=box] ;
0 [label="Power (bhp) <= 133.0\ngini = 0.667\nsamples = 4514\nvalue = [1506, 1524, 1484]"] ;
1 [label="Year <= 2012.5\ngini = 0.615\nsamples = 3310\nvalue = [1433, 1388, 489]"] ;
0 -> 1 [labeldistance=2.5, labelangle=45, headlabel="True"] ;
2 [label="Engine (CC) <= 1496.5\ngini = 0.351\nsamples = 1149\nvalue = [900, 213, 36]"] ;
1 -> 2 ;
3 [label="Year <= 2011.5\ngini = 0.17\nsamples = 779\nvalue = [706, 72, 1]"] ;
2 -> 3 ;
4 [label="Unnamed: 0 <= 12.5\ngini = 0.059\nsamples = 559\nvalue = [542, 16, 1]"] ;
3 -> 4 ;
5 [label="gini = 0.5\nsamples = 2\nvalue = [1, 1, 0]"] ;
4 -> 5 ;
6 [label="gini = 0.056\nsamples = 557\nvalue = [541, 15, 1]"] ;
4 -> 6 ;
7 [label="Power (bhp) <= 88.745\ngini = 0.38\nsamples = 220\nvalue = [164, 56, 0]"] ;
3 -> 7 ;
8 [label="gini = 0.274\nsamples = 177\nvalue = [148, 29, 0]"] ;
7 -> 8 ;
9 [label="gini = 0.467\nsamples = 43\nvalue = [16, 27, 0]"] ;
7 -> 9 ;
10 [label="Year <= 2011.5\ngini = 0.571\nsamples = 370\nvalue = [194, 141, 35]"] ;
2 -> 10 ;
11 [label="Engine (CC) <= 1994.5\ngini = 0.504\nsamples = 276\nvalue = [176, 80, 20]"] ;
10 -> 11 ;
12 [label="gini = 0.339\nsamples = 194\nvalue = [153, 38, 3]"] ;
11 -> 12 ;
13 [label="gini = 0.616\nsamples = 82\nvalue = [23, 42, 17]"] ;
11 -> 13 ;
14 [label="Power (bhp) <= 115.65\ngini = 0.517\nsamples = 94\nvalue = [18, 61, 15]"] ;
10 -> 14 ;
15 [label="gini = 0.652\nsamples = 49\nvalue = [13, 21, 15]"] ;
14 -> 15 ;
16 [label="gini = 0.198\nsamples = 45\nvalue = [5, 40, 0]"] ;
14 -> 16 ;
17 [label="Power (bhp) <= 69.505\ngini = 0.6\nsamples = 2161\nvalue = [533, 1175, 453]"] ;
1 -> 17 ;
18 [label="Power (bhp) <= 58.18\ngini = 0.353\nsamples = 358\nvalue = [278, 75, 5]"] ;
17 -> 18 ;
19 [label="Year <= 2017.5\ngini = 0.077\nsamples = 149\nvalue = [143, 6, 0]"] ;
18 -> 19 ;
20 [label="gini = 0.044\nsamples = 134\nvalue = [131, 3, 0]"] ;
19 -> 20 ;
21 [label="gini = 0.32\nsamples = 15\nvalue = [12, 3, 0]"] ;
19 -> 21 ;
22 [label="Year <= 2014.5\ngini = 0.473\nsamples = 209\nvalue = [135, 69, 5]"] ;
18 -> 22 ;
23 [label="gini = 0.24\nsamples = 79\nvalue = [68, 11, 0]"] ;
22 -> 23 ;
24 [label="gini = 0.534\nsamples = 130\nvalue = [67, 58, 5]"] ;
22 -> 24 ;
25 [label="Power (bhp) <= 98.89\ngini = 0.546\nsamples = 1803\nvalue = [255, 1100, 448]"] ;
17 -> 25 ;
26 [label="Year <= 2014.5\ngini = 0.48\nsamples = 1238\nvalue = [236, 847, 155]"] ;
25 -> 26 ;
27 [label="gini = 0.499\nsamples = 423\nvalue = [179, 240, 4]"] ;
26 -> 27 ;
28 [label="gini = 0.406\nsamples = 815\nvalue = [57, 607, 151]"] ;
26 -> 28 ;
29 [label="Year <= 2015.5\ngini = 0.529\nsamples = 565\nvalue = [19, 253, 293]"] ;
25 -> 29 ;
30 [label="gini = 0.485\nsamples = 315\nvalue = [19, 207, 89]"] ;
29 -> 30 ;
31 [label="gini = 0.3\nsamples = 250\nvalue = [0, 46, 204]"] ;
29 -> 31 ;
32 [label="Year <= 2011.5\ngini = 0.301\nsamples = 1204\nvalue = [73, 136, 995]"] ;
0 -> 32 [labeldistance=2.5, labelangle=-45, headlabel="False"] ;
33 [label="Power (bhp) <= 166.15\ngini = 0.596\nsamples = 322\nvalue = [68, 77, 177]"] ;
32 -> 33 ;
34 [label="Year <= 2008.5\ngini = 0.648\nsamples = 120\nvalue = [44, 49, 27]"] ;
33 -> 34 ;
35 [label="Engine (CC) <= 2429.0\ngini = 0.373\nsamples = 38\nvalue = [29, 8, 1]"] ;
34 -> 35 ;
36 [label="gini = 0.307\nsamples = 33\nvalue = [27, 5, 1]"] ;
35 -> 36 ;
37 [label="gini = 0.48\nsamples = 5\nvalue = [2, 3, 0]"] ;
35 -> 37 ;
38 [label="Transmission <= 0.5\ngini = 0.616\nsamples = 82\nvalue = [15, 41, 26]"] ;
34 -> 38 ;
39 [label="gini = 0.567\nsamples = 52\nvalue = [4, 23, 25]"] ;
38 -> 39 ;
40 [label="gini = 0.504\nsamples = 30\nvalue = [11, 18, 1]"] ;
38 -> 40 ;
41 [label="Year <= 2005.5\ngini = 0.415\nsamples = 202\nvalue = [24, 28, 150]"] ;
33 -> 41 ;
42 [label="Engine (CC) <= 2879.0\ngini = 0.398\nsamples = 16\nvalue = [12, 3, 1]"] ;
41 -> 42 ;
43 [label="gini = 0.0\nsamples = 12\nvalue = [12, 0, 0]"] ;
42 -> 43 ;
44 [label="gini = 0.375\nsamples = 4\nvalue = [0, 3, 1]"] ;
42 -> 44 ;
45 [label="Engine (CC) <= 1628.5\ngini = 0.336\nsamples = 186\nvalue = [12, 25, 149]"] ;
41 -> 45 ;
46 [label="gini = 0.0\nsamples = 4\nvalue = [4, 0, 0]"] ;
45 -> 46 ;
47 [label="gini = 0.309\nsamples = 182\nvalue = [8, 25, 149]"] ;
45 -> 47 ;
48 [label="Transmission <= 0.5\ngini = 0.135\nsamples = 882\nvalue = [5, 59, 818]"] ;
32 -> 48 ;
49 [label="Power (bhp) <= 164.35\ngini = 0.049\nsamples = 676\nvalue = [1, 16, 659]"] ;
48 -> 49 ;
50 [label="Year <= 2013.5\ngini = 0.17\nsamples = 128\nvalue = [0, 12, 116]"] ;
49 -> 50 ;
51 [label="gini = 0.418\nsamples = 37\nvalue = [0, 11, 26]"] ;
50 -> 51 ;
52 [label="gini = 0.022\nsamples = 91\nvalue = [0, 1, 90]"] ;
50 -> 52 ;
53 [label="Engine (CC) <= 1874.0\ngini = 0.018\nsamples = 548\nvalue = [1, 4, 543]"] ;
49 -> 53 ;
54 [label="gini = 0.172\nsamples = 21\nvalue = [0, 2, 19]"] ;
53 -> 54 ;
55 [label="gini = 0.011\nsamples = 527\nvalue = [1, 2, 524]"] ;
53 -> 55 ;
56 [label="Year <= 2013.5\ngini = 0.36\nsamples = 206\nvalue = [4, 43, 159]"] ;
48 -> 56 ;
57 [label="Engine (CC) <= 2415.5\ngini = 0.526\nsamples = 62\nvalue = [2, 27, 33]"] ;
56 -> 57 ;
58 [label="gini = 0.502\nsamples = 46\nvalue = [1, 27, 18]"] ;
57 -> 58 ;
59 [label="gini = 0.117\nsamples = 16\nvalue = [1, 0, 15]"] ;
57 -> 59 ;
60 [label="Engine (CC) <= 1354.5\ngini = 0.222\nsamples = 144\nvalue = [2, 16, 126]"] ;
56 -> 60 ;
61 [label="gini = 0.0\nsamples = 3\nvalue = [0, 3, 0]"] ;
60 -> 61 ;
62 [label="gini = 0.193\nsamples = 141\nvalue = [2, 13, 126]"] ;
60 -> 62 ;
}